{
    "model_weights": {
        "dense": {
            "dense": {
                "bias:0": [
                    -0.13662447035312653,
                    0.0946832150220871,
                    0.0,
                    -0.1091204360127449,
                    0.0,
                    0.0,
                    0.10592060536146164,
                    0.0,
                    0.0,
                    0.0,
                    0.2802650034427643,
                    0.0,
                    0.0,
                    0.07757362723350525,
                    -0.012029148638248444,
                    0.0,
                    -0.0261123888194561,
                    0.0,
                    0.0,
                    -0.1523226648569107,
                    -0.05655635520815849,
                    0.01964285410940647,
                    0.0,
                    0.0,
                    -0.1657397449016571,
                    -0.04571164399385452,
                    0.0,
                    0.0,
                    -0.15721918642520905,
                    0.0,
                    0.0,
                    -0.03478364646434784,
                    0.0,
                    0.0,
                    0.0,
                    0.0,
                    0.05244225636124611,
                    0.23959392309188843,
                    0.0,
                    0.27744489908218384,
                    -0.14666880667209625,
                    0.0,
                    0.018295908346772194,
                    0.0,
                    -0.19019195437431335,
                    -0.17766384780406952,
                    0.0,
                    0.0,
                    -0.019975537434220314,
                    0.16713248193264008,
                    -0.11462991684675217,
                    -0.15587885677814484,
                    -0.33524289727211,
                    0.0,
                    0.0,
                    -0.0077783456072211266,
                    0.0,
                    0.0,
                    0.0,
                    0.0,
                    0.33184176683425903,
                    -0.25148534774780273,
                    -0.04970164597034454,
                    0.2977823317050934
                ],
                "kernel:0": [
                    [
                        0.06896045058965683,
                        0.04757494106888771,
                        -0.1434711217880249,
                        0.018048224970698357,
                        -0.04640333354473114,
                        -0.10142755508422852,
                        0.2066444307565689,
                        -0.26196709275245667,
                        -0.06989607214927673,
                        -0.19150984287261963,
                        0.19495472311973572,
                        -0.12924157083034515,
                        -0.25013700127601624,
                        0.043085385113954544,
                        0.20522645115852356,
                        -0.19660362601280212,
                        0.054082293063402176,
                        -0.09110203385353088,
                        -0.1971305012702942,
                        0.2304823398590088,
                        0.16563430428504944,
                        0.07765918225049973,
                        -0.26871591806411743,
                        -0.27480313181877136,
                        0.03130209445953369,
                        0.24268217384815216,
                        -0.2461920976638794,
                        -0.219650000333786,
                        0.17862632870674133,
                        -0.17244502902030945,
                        -0.17120163142681122,
                        0.16774162650108337,
                        -0.19100861251354218,
                        -0.1282651275396347,
                        -0.25341564416885376,
                        -0.07867215573787689,
                        0.09595548361539841,
                        0.04727426916360855,
                        -0.16976401209831238,
                        0.20223268866539001,
                        0.10809904336929321,
                        -0.12694251537322998,
                        0.17755478620529175,
                        -0.06918303668498993,
                        0.0431009866297245,
                        0.22821292281150818,
                        -0.17976604402065277,
                        -0.2635878026485443,
                        0.06832623481750488,
                        0.2011561542749405,
                        0.2147233933210373,
                        0.01351168006658554,
                        0.07787510752677917,
                        -0.12791183590888977,
                        -0.0564560741186142,
                        -0.039076387882232666,
                        -0.12897226214408875,
                        -0.12093296647071838,
                        -0.10140088200569153,
                        -0.23429781198501587,
                        0.2194136083126068,
                        0.12933413684368134,
                        0.05837823450565338,
                        0.07028227299451828
                    ],
                    [
                        -0.4511454105377197,
                        -0.22134438157081604,
                        0.045391589403152466,
                        0.7487484812736511,
                        0.021642684936523438,
                        -0.020228981971740723,
                        0.3248581290245056,
                        -0.15437214076519012,
                        -0.040102213621139526,
                        0.14336058497428894,
                        0.7466556429862976,
                        -0.12538295984268188,
                        0.08469969034194946,
                        1.0836822986602783,
                        0.11196217685937881,
                        0.007615238428115845,
                        -0.1669277399778366,
                        -0.06148040294647217,
                        -0.10535874962806702,
                        0.1073695570230484,
                        0.37491661310195923,
                        0.33075326681137085,
                        0.12806418538093567,
                        0.2456323802471161,
                        0.226433664560318,
                        -0.2548862397670746,
                        -0.19510197639465332,
                        0.06351423263549805,
                        0.12526752054691315,
                        -0.1620888113975525,
                        -0.20014186203479767,
                        -0.28517603874206543,
                        0.027797937393188477,
                        0.12602919340133667,
                        0.15344348549842834,
                        -0.2574399709701538,
                        -0.8290078043937683,
                        0.42740803956985474,
                        -0.15099187195301056,
                        -0.6474366784095764,
                        -0.5449428558349609,
                        -0.2742097079753876,
                        0.6936463117599487,
                        -0.10956162214279175,
                        -0.5770749449729919,
                        -0.572217583656311,
                        0.08401644229888916,
                        -0.18452459573745728,
                        -0.9580790400505066,
                        -0.036796025931835175,
                        0.4071207642555237,
                        0.7363676428794861,
                        -0.1563575565814972,
                        -0.155226930975914,
                        0.23835334181785583,
                        -0.04126732051372528,
                        -0.0776153951883316,
                        -0.1843782216310501,
                        -0.08728437125682831,
                        -0.05746082961559296,
                        -0.07351721823215485,
                        -0.6923184394836426,
                        -0.6620930433273315,
                        -0.5657179951667786
                    ],
                    [
                        -0.5213434100151062,
                        0.5199049711227417,
                        -0.218669131398201,
                        0.6847770810127258,
                        -0.0700070708990097,
                        0.00899401307106018,
                        -0.4887857735157013,
                        0.022095978260040283,
                        -0.06410059332847595,
                        0.018779128789901733,
                        -0.7574285864830017,
                        -0.08961227536201477,
                        -0.041187822818756104,
                        -0.5588868856430054,
                        1.0010875463485718,
                        -0.10166218876838684,
                        0.4171421527862549,
                        0.157193124294281,
                        0.04731249809265137,
                        -0.6843681335449219,
                        -0.6262075304985046,
                        0.04369765892624855,
                        0.19418764114379883,
                        0.24404564499855042,
                        -0.33583393692970276,
                        -0.13224297761917114,
                        0.12878087162971497,
                        -0.04822187125682831,
                        1.012069582939148,
                        -0.246484637260437,
                        -0.11568249762058258,
                        0.4283590018749237,
                        0.14301937818527222,
                        -0.09706643223762512,
                        -0.05811622738838196,
                        -0.060759976506233215,
                        0.30926841497421265,
                        -0.41537031531333923,
                        0.25355038046836853,
                        -0.6785920262336731,
                        -0.10700321942567825,
                        -0.2467166781425476,
                        0.5595058798789978,
                        0.033624112606048584,
                        0.5975518822669983,
                        0.8180817365646362,
                        0.23627647757530212,
                        0.113427072763443,
                        0.2054901272058487,
                        0.29109662771224976,
                        -0.3264080584049225,
                        0.7342936992645264,
                        -0.007367595564574003,
                        0.24927625060081482,
                        0.23716560006141663,
                        -0.2684684097766876,
                        0.1372741460800171,
                        0.27690497040748596,
                        -0.11826866865158081,
                        0.1840134561061859,
                        -0.6872084736824036,
                        0.17676787078380585,
                        0.47285446524620056,
                        -0.1561173051595688
                    ],
                    [
                        0.6576255559921265,
                        0.3264307677745819,
                        -0.1317114531993866,
                        0.696285605430603,
                        0.04868325591087341,
                        -0.2071457803249359,
                        0.3407372236251831,
                        0.1808030605316162,
                        0.18496137857437134,
                        0.23424646258354187,
                        0.11731740832328796,
                        -0.26168060302734375,
                        -0.17726236581802368,
                        -0.6093149781227112,
                        0.37408772110939026,
                        0.24368765950202942,
                        -0.08846741169691086,
                        -0.1564173698425293,
                        0.16244721412658691,
                        -0.004064214415848255,
                        0.14144650101661682,
                        0.24458561837673187,
                        0.17585277557373047,
                        -0.25772061944007874,
                        -0.6298267245292664,
                        0.09068020433187485,
                        -0.12573374807834625,
                        -0.1670941412448883,
                        0.027911145240068436,
                        0.23574259877204895,
                        -0.09754349291324615,
                        -0.6835477352142334,
                        0.09285363554954529,
                        0.11527678370475769,
                        -0.1489773988723755,
                        0.14678514003753662,
                        0.5089857578277588,
                        0.07003692537546158,
                        -0.2714480459690094,
                        -0.015437861904501915,
                        -0.7158194184303284,
                        -0.0038352608680725098,
                        0.6546454429626465,
                        0.2474564015865326,
                        0.2516370415687561,
                        0.03786036744713783,
                        0.0046544671058654785,
                        -0.0394037663936615,
                        0.9598029255867004,
                        -0.472200870513916,
                        0.13315026462078094,
                        0.48465198278427124,
                        -0.7367618083953857,
                        0.18541523814201355,
                        -0.28365471959114075,
                        -0.131829634308815,
                        0.004265934228897095,
                        0.06992602348327637,
                        0.10262566804885864,
                        0.15077590942382812,
                        -0.426072895526886,
                        0.5464249849319458,
                        0.19151607155799866,
                        -0.8861514925956726
                    ],
                    [
                        0.17983084917068481,
                        -0.1704600751399994,
                        -0.021244585514068604,
                        0.036091919988393784,
                        -0.23077809810638428,
                        -0.26871469616889954,
                        0.19053910672664642,
                        -0.24640506505966187,
                        -0.013599485158920288,
                        -0.0448167622089386,
                        0.04231278598308563,
                        0.07789373397827148,
                        -0.1959611177444458,
                        0.1779537796974182,
                        0.5041803121566772,
                        -0.15568789839744568,
                        -0.4231109321117401,
                        -0.0578172504901886,
                        0.15724283456802368,
                        -0.07006844133138657,
                        -0.26117488741874695,
                        -0.24446672201156616,
                        -0.24557581543922424,
                        -0.07279187440872192,
                        -0.12119773030281067,
                        -0.1935855597257614,
                        -0.20064376294612885,
                        0.09819826483726501,
                        -0.4479493200778961,
                        -0.06210926175117493,
                        -0.17511123418807983,
                        0.38066166639328003,
                        0.2132590413093567,
                        -0.1013585776090622,
                        -0.1587243676185608,
                        -0.15261048078536987,
                        0.019949717447161674,
                        0.38086482882499695,
                        0.07174280285835266,
                        -0.14552843570709229,
                        0.42178961634635925,
                        -0.1834462434053421,
                        -0.5095837116241455,
                        -0.2733074128627777,
                        0.5007132291793823,
                        0.1865205615758896,
                        -0.028269082307815552,
                        -0.03509165346622467,
                        -0.4815039336681366,
                        -0.20293182134628296,
                        0.1117025762796402,
                        -0.025351421907544136,
                        0.2734687328338623,
                        -0.22190988063812256,
                        -0.18606525659561157,
                        0.14853067696094513,
                        -0.18805944919586182,
                        0.15913984179496765,
                        0.07637426257133484,
                        -0.20498520135879517,
                        -0.5176692008972168,
                        -0.027167662978172302,
                        0.2622200548648834,
                        -0.2372313290834427
                    ],
                    [
                        -0.011242682114243507,
                        -0.10283246636390686,
                        0.14043056964874268,
                        -0.17724169790744781,
                        -0.28412145376205444,
                        0.03635689616203308,
                        -0.012915155850350857,
                        0.26224061846733093,
                        0.19592642784118652,
                        0.2143634557723999,
                        -0.29237520694732666,
                        -0.20448920130729675,
                        0.030597060918807983,
                        0.014837837778031826,
                        -0.10238546133041382,
                        -0.25900202989578247,
                        0.3599746525287628,
                        -0.028999507427215576,
                        0.13254660367965698,
                        0.23154351115226746,
                        0.11932966858148575,
                        0.25206324458122253,
                        0.24014148116111755,
                        0.13406074047088623,
                        0.4767957031726837,
                        0.15499478578567505,
                        -0.03456991910934448,
                        -0.16028818488121033,
                        -0.14674274623394012,
                        0.24192282557487488,
                        0.14102759957313538,
                        0.18107017874717712,
                        -0.14021754264831543,
                        -0.18081879615783691,
                        0.021565914154052734,
                        0.05747944116592407,
                        0.0708712488412857,
                        0.1242571771144867,
                        0.2330043613910675,
                        0.0056740716099739075,
                        0.00920544657856226,
                        0.0798841118812561,
                        0.04653165861964226,
                        -0.02484297752380371,
                        0.22325216233730316,
                        -0.16928289830684662,
                        -0.15145766735076904,
                        0.05369102954864502,
                        0.2243717908859253,
                        -0.4537791609764099,
                        -0.029527811333537102,
                        0.3248467743396759,
                        -0.4472963213920593,
                        -0.1601654589176178,
                        -0.18631985783576965,
                        -0.19854897260665894,
                        -0.2742064595222473,
                        -0.1417088657617569,
                        0.15425178408622742,
                        -0.2700101137161255,
                        -0.1968175768852234,
                        -0.21720990538597107,
                        0.10362299531698227,
                        0.03652879223227501
                    ],
                    [
                        0.12391941249370575,
                        0.009201073087751865,
                        -0.116007000207901,
                        -0.021763652563095093,
                        0.043748319149017334,
                        0.008238732814788818,
                        -0.25236496329307556,
                        0.0750834047794342,
                        0.20283135771751404,
                        -0.15729402005672455,
                        -0.14392367005348206,
                        -0.13208286464214325,
                        -0.02596321702003479,
                        0.4213216304779053,
                        -0.28963980078697205,
                        0.2728155553340912,
                        0.41699904203414917,
                        0.09479391574859619,
                        0.063444584608078,
                        0.4672566056251526,
                        0.14052943885326385,
                        0.5298565626144409,
                        -0.1553056836128235,
                        0.28357604146003723,
                        0.658827543258667,
                        0.09028510749340057,
                        0.01869279146194458,
                        0.0388188362121582,
                        0.21630562841892242,
                        -0.0035095810890197754,
                        0.250681072473526,
                        0.5097372531890869,
                        -0.2062031328678131,
                        0.06977081298828125,
                        0.08288970589637756,
                        0.1145506501197815,
                        -0.13584564626216888,
                        -0.3244572579860687,
                        0.19911429286003113,
                        0.40507447719573975,
                        -0.21274256706237793,
                        0.009609431028366089,
                        -0.4529152512550354,
                        -0.0880560576915741,
                        0.37592560052871704,
                        0.12276019901037216,
                        -0.18374061584472656,
                        -0.023682773113250732,
                        0.15971724689006805,
                        -0.2753605246543884,
                        -0.5465607643127441,
                        -0.10003571957349777,
                        0.3309636414051056,
                        -0.17422235012054443,
                        -0.025705307722091675,
                        -0.021617770195007324,
                        -0.11068341135978699,
                        -0.20314791798591614,
                        0.09628549218177795,
                        0.20342722535133362,
                        -0.5011087656021118,
                        -0.25654563307762146,
                        -0.224671870470047,
                        -0.4393283724784851
                    ],
                    [
                        0.16942130029201508,
                        -0.10365039855241776,
                        0.1697264015674591,
                        -0.15394635498523712,
                        0.1797371208667755,
                        0.19953826069831848,
                        -0.5015295743942261,
                        0.14076131582260132,
                        0.0752842128276825,
                        0.16577214002609253,
                        0.24807462096214294,
                        -0.08104366064071655,
                        -0.07280376553535461,
                        0.3634963929653168,
                        -0.09119401127099991,
                        -0.062307700514793396,
                        0.3807661533355713,
                        -0.08275935053825378,
                        -0.04384385049343109,
                        0.12596316635608673,
                        0.13100433349609375,
                        0.5906150937080383,
                        0.23449257016181946,
                        0.08399215340614319,
                        0.3285372853279114,
                        -0.3839578628540039,
                        -1.3023614883422852e-05,
                        0.06894475221633911,
                        -0.09056464582681656,
                        -0.1904410570859909,
                        0.0270843505859375,
                        -0.10339891165494919,
                        -0.22024789452552795,
                        0.21275091171264648,
                        -0.013721466064453125,
                        -0.043305009603500366,
                        -0.3144482672214508,
                        0.075199194252491,
                        0.07321673631668091,
                        0.047655098140239716,
                        -0.05475097894668579,
                        -0.18476498126983643,
                        -0.44409677386283875,
                        0.2203940451145172,
                        0.3141607344150543,
                        -0.017952105030417442,
                        0.16618362069129944,
                        0.2586961090564728,
                        0.4225079417228699,
                        -0.2836151719093323,
                        -0.1573132425546646,
                        0.05116492509841919,
                        0.21456113457679749,
                        -0.18735773861408234,
                        0.17595535516738892,
                        0.07002920657396317,
                        0.23288753628730774,
                        0.0771772563457489,
                        0.26980188488960266,
                        -0.026839405298233032,
                        -0.30070164799690247,
                        0.015588878653943539,
                        -0.6076939702033997,
                        -0.06188233196735382
                    ],
                    [
                        -0.057872921228408813,
                        -0.23300980031490326,
                        0.059553176164627075,
                        0.25059112906455994,
                        0.06596401333808899,
                        -0.17461693286895752,
                        0.0022442732006311417,
                        -0.0034381747245788574,
                        -0.01590728759765625,
                        0.13832953572273254,
                        -0.12844765186309814,
                        0.19214358925819397,
                        -0.021063387393951416,
                        -0.021004240959882736,
                        -0.07479611784219742,
                        0.09382745623588562,
                        -0.128041610121727,
                        -0.1293211430311203,
                        -0.16245418787002563,
                        -0.18852701783180237,
                        0.20696964859962463,
                        -0.1398932933807373,
                        0.1352224051952362,
                        0.017197996377944946,
                        0.07807917892932892,
                        -0.1757548749446869,
                        0.17652466893196106,
                        0.0664820671081543,
                        -0.04963049665093422,
                        -0.12930619716644287,
                        -0.0814376175403595,
                        -0.14491048455238342,
                        -0.06699049472808838,
                        0.06916436553001404,
                        0.25229355692863464,
                        0.2823847234249115,
                        0.039603251963853836,
                        0.20157119631767273,
                        -0.10468161106109619,
                        0.2229689359664917,
                        0.3344154953956604,
                        0.02515512704849243,
                        0.043897323310375214,
                        -0.21602144837379456,
                        -0.18593548238277435,
                        -0.08111974596977234,
                        0.2366885244846344,
                        0.1770385205745697,
                        0.13839061558246613,
                        0.10041670501232147,
                        -0.02136125974357128,
                        0.22547000646591187,
                        0.08052079379558563,
                        0.20499294996261597,
                        -0.200038880109787,
                        -0.16392886638641357,
                        -0.10826873779296875,
                        -0.27091866731643677,
                        -0.22650691866874695,
                        -0.0299379825592041,
                        -0.1219104453921318,
                        0.1612522304058075,
                        0.12092860043048859,
                        0.10191833972930908
                    ],
                    [
                        0.10424573719501495,
                        0.11573812365531921,
                        0.18009871244430542,
                        0.7317577004432678,
                        0.2807222902774811,
                        0.002453923225402832,
                        0.6064792275428772,
                        0.23674526810646057,
                        -0.18301324546337128,
                        -0.18403476476669312,
                        -0.2871543765068054,
                        -0.007524013519287109,
                        0.24313154816627502,
                        -0.25188642740249634,
                        -0.5266909599304199,
                        0.058498382568359375,
                        0.6373066902160645,
                        0.2794940173625946,
                        -0.21181851625442505,
                        -0.07435499131679535,
                        0.39765989780426025,
                        -0.2670421600341797,
                        0.27829959988594055,
                        -0.22115230560302734,
                        0.49991747736930847,
                        0.46179187297821045,
                        -0.029056400060653687,
                        -0.014213383197784424,
                        0.03181200474500656,
                        -0.0365884006023407,
                        -0.20899343490600586,
                        -0.4691673517227173,
                        0.14880162477493286,
                        0.10483279824256897,
                        0.22894582152366638,
                        -0.24050238728523254,
                        -0.4109620153903961,
                        0.22135381400585175,
                        -0.14012330770492554,
                        -0.03420894593000412,
                        0.5924527645111084,
                        0.029619723558425903,
                        0.043322544544935226,
                        0.0668921172618866,
                        -0.573613703250885,
                        -0.34476473927497864,
                        0.21104654669761658,
                        0.2530272305011749,
                        -0.32989799976348877,
                        0.026996534317731857,
                        0.02700919844210148,
                        -0.00758965453132987,
                        0.7447666525840759,
                        -0.13835853338241577,
                        0.11058646440505981,
                        -0.08915762603282928,
                        0.023044884204864502,
                        -0.04891088604927063,
                        0.06414097547531128,
                        -0.2760908007621765,
                        -0.6566171050071716,
                        0.25531139969825745,
                        0.2511879503726959,
                        0.4204810559749603
                    ]
                ]
            }
        },
        "dense_1": {
            "dense_1": {
                "bias:0": [
                    -0.01519611943513155,
                    -0.049265291541814804,
                    0.0,
                    -0.03275119885802269,
                    -0.25182169675827026,
                    -0.137436643242836,
                    -0.11893333494663239,
                    0.0668306052684784,
                    -0.005272386595606804,
                    -0.025328941643238068,
                    0.028150424361228943,
                    0.18011097609996796,
                    0.0,
                    -0.016155468299984932,
                    -0.21299153566360474,
                    -0.010619314387440681,
                    0.11395873874425888,
                    0.19504931569099426,
                    -0.13859297335147858,
                    -0.027145296335220337,
                    -0.11546866595745087,
                    0.0,
                    0.27356067299842834,
                    0.0,
                    0.0,
                    0.14973285794258118,
                    0.08911187201738358,
                    0.0,
                    0.0686066597700119,
                    0.19923274219036102,
                    0.0,
                    -0.026432020589709282,
                    -0.007756820414215326,
                    -0.01897897943854332,
                    -0.18692760169506073,
                    -0.012486385181546211,
                    0.0,
                    0.3220641613006592,
                    0.028527237474918365,
                    0.20327475666999817,
                    0.050640564411878586,
                    -0.10943199694156647,
                    0.07474873960018158,
                    -0.10905080288648605,
                    0.0,
                    -0.030256113037467003,
                    -0.14838960766792297,
                    0.0,
                    -0.02902013435959816,
                    0.0,
                    0.19782087206840515,
                    0.08724412322044373,
                    0.12172254920005798,
                    0.0,
                    -0.1066293716430664,
                    -0.26103752851486206,
                    0.07262124866247177,
                    -0.13050024211406708,
                    -0.17289642989635468,
                    -0.001866453094407916,
                    0.0,
                    0.17832288146018982,
                    -0.004915292840451002,
                    0.0
                ],
                "kernel:0": [
                    [
                        0.18043814599514008,
                        0.22941352427005768,
                        -0.14726319909095764,
                        -0.10073430091142654,
                        0.26991569995880127,
                        0.17891967296600342,
                        0.17929889261722565,
                        -0.05992642045021057,
                        0.046088870614767075,
                        0.1370219737291336,
                        -0.16370490193367004,
                        0.07092730700969696,
                        -0.16938695311546326,
                        -0.02707103081047535,
                        0.17556330561637878,
                        0.0319044254720211,
                        0.2102023810148239,
                        -0.21165421605110168,
                        -0.13112616539001465,
                        0.07983707636594772,
                        0.23625448346138,
                        -0.043818458914756775,
                        0.02301817387342453,
                        -0.062466129660606384,
                        -0.13088542222976685,
                        0.14430922269821167,
                        -0.03790941461920738,
                        -0.08293554186820984,
                        -0.03143764287233353,
                        -0.17624087631702423,
                        0.05254431068897247,
                        0.12550777196884155,
                        -0.08467432111501694,
                        -0.1334417760372162,
                        0.0723768100142479,
                        -0.029849808663129807,
                        -0.21147911250591278,
                        0.22482305765151978,
                        0.10510493814945221,
                        -0.07123801112174988,
                        0.10150524228811264,
                        0.09188944101333618,
                        -0.1266700178384781,
                        0.22895421087741852,
                        -0.008857429027557373,
                        0.003194807330146432,
                        -0.2456505000591278,
                        -0.17503052949905396,
                        -0.0014403146924450994,
                        0.08995838463306427,
                        -0.2177470624446869,
                        0.17739862203598022,
                        0.13081011176109314,
                        -0.10337113589048386,
                        0.16571815311908722,
                        0.19093433022499084,
                        -0.18593621253967285,
                        -0.1749991625547409,
                        -0.06711997091770172,
                        0.09404381364583969,
                        -0.1839396357536316,
                        0.22295978665351868,
                        0.07654056698083878,
                        -0.12501230835914612
                    ],
                    [
                        0.034945905208587646,
                        -0.06650429964065552,
                        0.19028185307979584,
                        0.12721440196037292,
                        -0.022887175902724266,
                        0.22479741275310516,
                        0.23894274234771729,
                        0.251737117767334,
                        -0.1725310981273651,
                        -0.20291295647621155,
                        -0.0923948734998703,
                        -0.25153496861457825,
                        -0.10728298872709274,
                        -0.012755805626511574,
                        -0.15230420231819153,
                        0.040807198733091354,
                        -0.0058183688670396805,
                        0.00997103936970234,
                        -0.021880438551306725,
                        -0.007386529818177223,
                        -0.0892798900604248,
                        0.057448431849479675,
                        0.3635074496269226,
                        0.08386318385601044,
                        0.04932142794132233,
                        0.07583151012659073,
                        0.12218073755502701,
                        -0.13822251558303833,
                        -0.06637820601463318,
                        0.18211762607097626,
                        -0.00978192687034607,
                        0.14938651025295258,
                        0.12105398625135422,
                        -0.023388266563415527,
                        -0.16723541915416718,
                        -0.14997760951519012,
                        0.03262907266616821,
                        -0.08273200690746307,
                        -0.24158316850662231,
                        -0.10077352821826935,
                        0.06501414626836777,
                        -0.259495347738266,
                        0.12661880254745483,
                        -0.034814778715372086,
                        -0.10058597475290298,
                        -0.04460129141807556,
                        0.020370736718177795,
                        0.013763517141342163,
                        0.18291246891021729,
                        -0.0772242397069931,
                        -0.07200344651937485,
                        -0.06213819608092308,
                        -0.12852880358695984,
                        -0.1006237119436264,
                        0.13242210447788239,
                        -0.05682484433054924,
                        -0.15433001518249512,
                        0.10715321451425552,
                        -0.09300274401903152,
                        0.20366162061691284,
                        -0.033079445362091064,
                        -0.11220002919435501,
                        0.16906476020812988,
                        0.11172233521938324
                    ],
                    [
                        0.019524067640304565,
                        0.19663189351558685,
                        -0.1777779459953308,
                        -0.1741512417793274,
                        0.15881334245204926,
                        -0.04653139412403107,
                        -0.13949745893478394,
                        0.18593423068523407,
                        0.021492451429367065,
                        -0.12386873364448547,
                        -0.15069814026355743,
                        0.02091410756111145,
                        0.11545439064502716,
                        0.17622025310993195,
                        0.02627435326576233,
                        0.17146117985248566,
                        0.17094068229198456,
                        -0.062470197677612305,
                        0.03998158872127533,
                        0.1213730126619339,
                        0.058110252022743225,
                        0.10596896708011627,
                        0.0030623525381088257,
                        -0.11471790075302124,
                        0.058010563254356384,
                        -0.05293495953083038,
                        0.10866962373256683,
                        -0.11176735162734985,
                        -0.13345032930374146,
                        0.03750826418399811,
                        -0.08310438692569733,
                        -0.16069956123828888,
                        -0.034319087862968445,
                        -0.08182504773139954,
                        -0.001701056957244873,
                        -0.1786533147096634,
                        0.14859627187252045,
                        -0.12427673488855362,
                        0.08402670919895172,
                        0.1110428124666214,
                        -0.18110981583595276,
                        0.1485501080751419,
                        0.12483544647693634,
                        0.07122020423412323,
                        -0.05983462929725647,
                        -0.15953193604946136,
                        -0.12287068367004395,
                        0.09334661066532135,
                        0.2151743620634079,
                        0.08416785299777985,
                        0.10850353538990021,
                        0.056928202509880066,
                        -0.017588555812835693,
                        -0.19613268971443176,
                        0.12316067516803741,
                        0.1252090185880661,
                        0.12151707708835602,
                        0.1473095566034317,
                        -0.043618783354759216,
                        -0.006675496697425842,
                        0.10737864673137665,
                        0.19095416367053986,
                        -0.18870654702186584,
                        0.11354191601276398
                    ],
                    [
                        0.07981739938259125,
                        0.060753777623176575,
                        -0.11728363484144211,
                        -0.15014488995075226,
                        0.23194897174835205,
                        0.3965801000595093,
                        0.11318915337324142,
                        0.3654397130012512,
                        -0.050113871693611145,
                        -0.501791775226593,
                        -0.3734416365623474,
                        -0.5344303846359253,
                        -0.17415377497673035,
                        -0.028875907883048058,
                        0.11041711270809174,
                        -0.028692707419395447,
                        0.3395894169807434,
                        -0.6317155957221985,
                        0.08897864073514938,
                        0.012869167141616344,
                        -0.1670352965593338,
                        0.06834827363491058,
                        0.06884615868330002,
                        0.06547509133815765,
                        0.022739514708518982,
                        -0.07669252902269363,
                        -0.06861019134521484,
                        -0.05421195924282074,
                        -0.3538118898868561,
                        0.1707221418619156,
                        -0.20157484710216522,
                        -0.11420610547065735,
                        -0.1309717446565628,
                        -0.046709176152944565,
                        -0.31495219469070435,
                        0.19085311889648438,
                        -0.1902403086423874,
                        -0.14682111144065857,
                        0.19463755190372467,
                        0.0782371237874031,
                        0.0685882568359375,
                        -0.41303905844688416,
                        -0.08171737194061279,
                        -0.09640759974718094,
                        -0.07126295566558838,
                        0.05363195762038231,
                        0.13976038992404938,
                        0.19097758829593658,
                        -0.23026898503303528,
                        0.10346116125583649,
                        0.07422580569982529,
                        -0.2474190592765808,
                        0.18183426558971405,
                        0.12235398590564728,
                        0.16064627468585968,
                        0.5509967803955078,
                        0.20093843340873718,
                        0.17272785305976868,
                        0.3435401916503906,
                        -0.08159763365983963,
                        0.09484769403934479,
                        -0.215682715177536,
                        0.170039102435112,
                        0.16465534269809723
                    ],
                    [
                        0.011423930525779724,
                        0.14872954785823822,
                        0.1093723326921463,
                        -0.14895841479301453,
                        0.0844123512506485,
                        0.08847503364086151,
                        0.21494941413402557,
                        0.0036927759647369385,
                        -0.14063963294029236,
                        -0.062322214245796204,
                        -0.15877312421798706,
                        0.2102830857038498,
                        0.12242509424686432,
                        -0.19383202493190765,
                        0.16403667628765106,
                        -0.1903359591960907,
                        -0.14942826330661774,
                        0.1382790058851242,
                        0.023127228021621704,
                        -0.06620953977108002,
                        -0.050191253423690796,
                        0.1349596232175827,
                        -0.021624445915222168,
                        -0.04140980541706085,
                        -0.1616354137659073,
                        0.014109000563621521,
                        -0.08839838206768036,
                        0.052923038601875305,
                        -0.07716967165470123,
                        0.020841434597969055,
                        -0.10677500814199448,
                        0.17688973248004913,
                        -0.17949768900871277,
                        -0.0009622275829315186,
                        -0.13847431540489197,
                        -0.20900298655033112,
                        0.08546142280101776,
                        -0.1894102245569229,
                        -0.04833321273326874,
                        0.02437858283519745,
                        0.03652803599834442,
                        0.05791495740413666,
                        -0.08819764852523804,
                        -0.12936100363731384,
                        -0.17683672904968262,
                        0.06722365319728851,
                        0.10790778696537018,
                        -0.0685851126909256,
                        0.06730566918849945,
                        -0.16914263367652893,
                        0.06142888963222504,
                        0.012146040797233582,
                        0.1350870281457901,
                        0.20850326120853424,
                        0.1936275213956833,
                        0.09492449462413788,
                        -0.054992035031318665,
                        0.04714779555797577,
                        -0.07498277723789215,
                        -0.19040074944496155,
                        -0.08809146285057068,
                        -0.07719878852367401,
                        -0.1710052639245987,
                        0.022760212421417236
                    ],
                    [
                        0.043995097279548645,
                        -0.06657356023788452,
                        -0.16352756321430206,
                        -0.10211018472909927,
                        -0.11524498462677002,
                        -0.1942681521177292,
                        0.13581566512584686,
                        0.03446982800960541,
                        -0.02662964165210724,
                        -0.15947164595127106,
                        0.14635615050792694,
                        -0.04754839837551117,
                        0.1956416815519333,
                        0.15635238587856293,
                        0.09334371984004974,
                        -0.16556032001972198,
                        -0.20235970616340637,
                        0.05431602895259857,
                        0.08239327371120453,
                        0.0410352498292923,
                        0.03942812979221344,
                        0.07019634544849396,
                        -0.20553505420684814,
                        -0.007167413830757141,
                        0.0003421306610107422,
                        0.03815571963787079,
                        0.09695680439472198,
                        0.04145069420337677,
                        0.00220392644405365,
                        -0.006929606199264526,
                        0.0036093592643737793,
                        0.07506175339221954,
                        0.11888928711414337,
                        0.0055837482213974,
                        -0.006101593375205994,
                        0.027769342064857483,
                        -0.01275855302810669,
                        0.0848505049943924,
                        0.19741655886173248,
                        0.017532184720039368,
                        -0.04970751702785492,
                        -0.03546079993247986,
                        0.10524718463420868,
                        0.1760621815919876,
                        -0.1633463203907013,
                        -0.058113694190979004,
                        -0.17827628552913666,
                        -0.13542059063911438,
                        0.2016259878873825,
                        0.0043282657861709595,
                        -0.17002975940704346,
                        -0.14138413965702057,
                        0.152390256524086,
                        -0.09510836005210876,
                        0.2037617415189743,
                        -0.12805524468421936,
                        -0.004145994782447815,
                        0.18467436730861664,
                        -0.18173600733280182,
                        -0.0007629245519638062,
                        0.18794278800487518,
                        -0.07764126360416412,
                        -0.1384773552417755,
                        -0.03912864625453949
                    ],
                    [
                        -0.11813229322433472,
                        0.17428967356681824,
                        0.010284751653671265,
                        -0.11566705256700516,
                        0.007355033420026302,
                        0.11834348738193512,
                        -0.026339398697018623,
                        -0.00384199945256114,
                        -0.14435814321041107,
                        0.047658566385507584,
                        -0.015159073285758495,
                        -0.17128588259220123,
                        0.07300345599651337,
                        -0.06463001668453217,
                        0.11780068278312683,
                        -0.15246929228305817,
                        0.31147825717926025,
                        -0.018491867929697037,
                        -0.07909482717514038,
                        -0.09156069159507751,
                        0.0632486566901207,
                        -0.0019784122705459595,
                        -0.025820670649409294,
                        0.18282707035541534,
                        -0.20443986356258392,
                        0.0903751328587532,
                        0.22374798357486725,
                        -0.06975676119327545,
                        0.09283909946680069,
                        0.10437330603599548,
                        0.1574171930551529,
                        -0.19626642763614655,
                        0.07257047295570374,
                        -0.00801299512386322,
                        -0.14632436633110046,
                        -0.024086393415927887,
                        0.13737379014492035,
                        0.18328121304512024,
                        0.20238029956817627,
                        -0.10270337015390396,
                        0.0938018262386322,
                        -0.06706278026103973,
                        -0.11286105215549469,
                        -0.12083430588245392,
                        -0.09340307116508484,
                        -0.1738094687461853,
                        -0.05274539068341255,
                        -0.21265436708927155,
                        0.18309350311756134,
                        -0.14952045679092407,
                        0.1306661069393158,
                        -0.06351084262132645,
                        0.21582205593585968,
                        0.13086752593517303,
                        -0.07384941726922989,
                        0.16986729204654694,
                        0.15638191998004913,
                        0.008391549810767174,
                        0.07337813079357147,
                        0.04131389036774635,
                        -0.11912787705659866,
                        0.12493757158517838,
                        -0.13238289952278137,
                        -0.20269544422626495
                    ],
                    [
                        -0.07632637023925781,
                        0.18638895452022552,
                        -0.111524797976017,
                        -0.16386407613754272,
                        0.008761420845985413,
                        0.1820998638868332,
                        -0.07171554863452911,
                        -0.016867324709892273,
                        0.15049295127391815,
                        0.0008547157049179077,
                        -0.12412337213754654,
                        0.19648347795009613,
                        0.19493232667446136,
                        0.016340404748916626,
                        0.16607175767421722,
                        0.16731460392475128,
                        0.19131575524806976,
                        0.04552708566188812,
                        0.11954666674137115,
                        0.11452536284923553,
                        0.19702069461345673,
                        -0.13908374309539795,
                        -0.15281912684440613,
                        -0.07296204566955566,
                        -0.14828366041183472,
                        0.05214168131351471,
                        -0.10606054961681366,
                        0.1629914492368698,
                        0.12391071021556854,
                        0.11255677044391632,
                        0.09518040716648102,
                        -0.02290429174900055,
                        0.10158465802669525,
                        0.12047551572322845,
                        -0.053677961230278015,
                        0.07709003984928131,
                        0.10019902884960175,
                        0.08115215599536896,
                        -0.062309250235557556,
                        0.09979738295078278,
                        -0.0402216762304306,
                        -0.08203798532485962,
                        -0.07303725183010101,
                        0.12726037204265594,
                        -0.2075619399547577,
                        0.09497816860675812,
                        0.01825346052646637,
                        -0.10128170251846313,
                        -0.19906434416770935,
                        0.14706359803676605,
                        -0.16474778950214386,
                        0.0799674242734909,
                        0.21333105862140656,
                        0.19949428737163544,
                        0.09084700047969818,
                        0.20581530034542084,
                        0.20923949778079987,
                        0.005348563194274902,
                        0.041820988059043884,
                        0.07477603852748871,
                        0.013268694281578064,
                        0.16503645479679108,
                        0.2086833268404007,
                        0.048029497265815735
                    ],
                    [
                        0.18965984880924225,
                        -0.11412077397108078,
                        0.18449918925762177,
                        -0.05795419216156006,
                        -0.12367583811283112,
                        -0.17173036932945251,
                        0.15056826174259186,
                        -0.07288049161434174,
                        -0.1430118978023529,
                        -0.08304749429225922,
                        -0.014701485633850098,
                        0.015365049242973328,
                        -0.12387193739414215,
                        0.07799868285655975,
                        0.057064637541770935,
                        0.00024478137493133545,
                        -0.18031936883926392,
                        -0.11615622043609619,
                        0.06152896583080292,
                        -0.18582533299922943,
                        0.005373597145080566,
                        -0.16256621479988098,
                        0.12632881104946136,
                        -0.19875860214233398,
                        0.18376769125461578,
                        0.14200548827648163,
                        -0.03703595697879791,
                        0.20130647718906403,
                        -0.004837647080421448,
                        0.1767900139093399,
                        0.12353228032588959,
                        0.017751455307006836,
                        0.035207971930503845,
                        -0.03856274485588074,
                        0.18829147517681122,
                        0.21058903634548187,
                        -0.14411097764968872,
                        0.1706686168909073,
                        -0.05536776781082153,
                        -0.003969401121139526,
                        -0.16602231562137604,
                        -0.13965320587158203,
                        0.12644629180431366,
                        0.03578893840312958,
                        -0.03766736388206482,
                        -0.14655426144599915,
                        -0.1703673005104065,
                        -0.035342901945114136,
                        -0.04611958563327789,
                        -0.16654284298419952,
                        0.04426778852939606,
                        0.0936623066663742,
                        -0.14232996106147766,
                        -0.029765397310256958,
                        -0.016128093004226685,
                        0.033135563135147095,
                        0.19625498354434967,
                        0.16436131298542023,
                        0.17951928079128265,
                        0.05205748975276947,
                        -0.14102011919021606,
                        0.12273041903972626,
                        0.13154207170009613,
                        0.15139640867710114
                    ],
                    [
                        0.008835643529891968,
                        -0.06401185691356659,
                        -0.09206050634384155,
                        0.006205648183822632,
                        -0.021327123045921326,
                        -0.12000685185194016,
                        -0.189300075173378,
                        -0.1518562138080597,
                        -0.15591172873973846,
                        0.12452413141727448,
                        0.20636753737926483,
                        0.16484127938747406,
                        -0.1652037352323532,
                        0.09527327120304108,
                        0.10705970227718353,
                        -0.07116441428661346,
                        -0.16192010045051575,
                        -0.09204770624637604,
                        0.11150304973125458,
                        0.19757167994976044,
                        0.03286038339138031,
                        -0.15843302011489868,
                        0.1395418494939804,
                        0.04538874328136444,
                        -0.03184874355792999,
                        0.08615382015705109,
                        0.029591649770736694,
                        0.040119901299476624,
                        0.04810155928134918,
                        0.07715047895908356,
                        0.07286964356899261,
                        -0.12803146243095398,
                        0.002187773585319519,
                        -0.10915403068065643,
                        0.11197419464588165,
                        0.026683896780014038,
                        0.2016381174325943,
                        -0.13947609066963196,
                        -0.008836880326271057,
                        0.21104086935520172,
                        -0.1428905427455902,
                        -0.10785890370607376,
                        -0.07326051592826843,
                        -0.0732312947511673,
                        0.017913907766342163,
                        -0.18506090342998505,
                        0.03157201409339905,
                        0.19840551912784576,
                        0.19905810058116913,
                        0.21590591967105865,
                        -0.16594214737415314,
                        -0.026359781622886658,
                        -0.01376795768737793,
                        -0.0211016982793808,
                        0.15551070868968964,
                        0.03233179450035095,
                        0.03390039503574371,
                        -0.021810218691825867,
                        0.11471541225910187,
                        0.005518034100532532,
                        0.1914360672235489,
                        -0.1704147905111313,
                        -0.03133131563663483,
                        -0.08229081332683563
                    ],
                    [
                        -0.1120159775018692,
                        0.14233119785785675,
                        -0.13497701287269592,
                        -0.1618497669696808,
                        -0.10052523016929626,
                        0.19519124925136566,
                        0.05743024870753288,
                        -0.15288056433200836,
                        -0.1180080696940422,
                        0.10670378804206848,
                        -0.1285751461982727,
                        0.2328929901123047,
                        0.08730725944042206,
                        0.09877751767635345,
                        0.1197027638554573,
                        0.08457563072443008,
                        -0.06633128970861435,
                        0.14775313436985016,
                        -0.13806654512882233,
                        0.11652012914419174,
                        0.0005826466367579997,
                        -0.15525782108306885,
                        0.22990861535072327,
                        -0.08499054610729218,
                        -0.09386082738637924,
                        0.16634628176689148,
                        0.04003485292196274,
                        -0.14395007491111755,
                        0.03911464661359787,
                        0.13649730384349823,
                        -0.022908732295036316,
                        0.028258109465241432,
                        0.06565815210342407,
                        -0.10505597293376923,
                        -0.11741325259208679,
                        -0.08077061921358109,
                        -0.20810569822788239,
                        0.11884941160678864,
                        0.16456030309200287,
                        -0.2043001800775528,
                        -0.02951369434595108,
                        -0.04844537377357483,
                        0.017976611852645874,
                        0.07285768538713455,
                        0.1617695838212967,
                        0.00507345562800765,
                        -0.16570638120174408,
                        -0.10500477999448776,
                        -0.18726293742656708,
                        0.21152304112911224,
                        -0.10544269531965256,
                        0.14345285296440125,
                        0.09267687797546387,
                        -0.10132211446762085,
                        -0.19683733582496643,
                        0.1684943437576294,
                        0.12860329449176788,
                        -0.2893408238887787,
                        0.15729166567325592,
                        -0.12540696561336517,
                        -0.0986398309469223,
                        0.17778661847114563,
                        0.1476994752883911,
                        -0.0826348066329956
                    ],
                    [
                        -0.03774365782737732,
                        0.03744719922542572,
                        -0.15990060567855835,
                        -0.04622659087181091,
                        -0.12328600883483887,
                        -0.19302397966384888,
                        -0.10249567776918411,
                        -0.04585385322570801,
                        0.06440328061580658,
                        -0.09522078931331635,
                        -0.059102773666381836,
                        -0.16529081761837006,
                        -0.045693933963775635,
                        0.18986184895038605,
                        -0.0809536725282669,
                        -0.1856352686882019,
                        -0.0490746796131134,
                        -0.11954816430807114,
                        0.023858413100242615,
                        -0.0648714154958725,
                        -0.2126009464263916,
                        0.12452776730060577,
                        -0.1767408698797226,
                        -0.10637562721967697,
                        0.09799514710903168,
                        0.1067674309015274,
                        -0.004531487822532654,
                        -0.029668301343917847,
                        -0.17436474561691284,
                        0.001234680414199829,
                        -0.20018546283245087,
                        -0.03214685618877411,
                        -0.13095182180404663,
                        -0.12959294021129608,
                        -0.17748259007930756,
                        -0.09589555114507675,
                        0.1705748587846756,
                        0.1343008130788803,
                        -0.11579447239637375,
                        0.18267397582530975,
                        -0.06841471791267395,
                        -0.119173564016819,
                        -0.14287975430488586,
                        -0.15897460281848907,
                        -0.18023115396499634,
                        -0.1632857769727707,
                        -0.12119115144014359,
                        -0.09098440408706665,
                        0.07739271223545074,
                        0.04561375081539154,
                        -0.14486238360404968,
                        0.0732477456331253,
                        -0.07714970409870148,
                        -0.06650273501873016,
                        -0.0012253373861312866,
                        -0.12983259558677673,
                        0.02320016920566559,
                        -0.0744096040725708,
                        0.002860426902770996,
                        -0.18493850529193878,
                        0.13828347623348236,
                        0.07645027339458466,
                        0.15972600877285004,
                        0.17305530607700348
                    ],
                    [
                        -0.18119637668132782,
                        -0.19349056482315063,
                        0.09519223868846893,
                        0.10861222445964813,
                        -0.013416796922683716,
                        0.024986043572425842,
                        0.13226573169231415,
                        -0.1803373396396637,
                        -0.10632003843784332,
                        0.07819624245166779,
                        -0.13089683651924133,
                        0.15791486203670502,
                        0.14438657462596893,
                        -0.09506123512983322,
                        0.17086176574230194,
                        0.0655098408460617,
                        0.0276995450258255,
                        0.024717405438423157,
                        -0.05270303785800934,
                        0.10539831221103668,
                        0.09030188620090485,
                        0.12819580733776093,
                        -0.19596368074417114,
                        0.08147312700748444,
                        -0.15380018949508667,
                        0.16691775619983673,
                        -0.16882622241973877,
                        -0.15954194962978363,
                        0.057654812932014465,
                        -0.2097739726305008,
                        0.040599122643470764,
                        0.13729740679264069,
                        0.0789542943239212,
                        0.07869414985179901,
                        0.06955017149448395,
                        -0.018755510449409485,
                        0.03395523130893707,
                        -0.034013912081718445,
                        -0.08500416576862335,
                        0.1277533322572708,
                        0.08857132494449615,
                        -0.15500441193580627,
                        0.15984077751636505,
                        -0.09634489566087723,
                        -0.04704165458679199,
                        0.022097736597061157,
                        0.21387605369091034,
                        -0.2104199379682541,
                        -0.03303748369216919,
                        -0.19334164261817932,
                        0.007935509085655212,
                        -0.1770469844341278,
                        -0.21249301731586456,
                        -0.13193640112876892,
                        0.03353069722652435,
                        0.13583602011203766,
                        -0.024055808782577515,
                        0.21020828187465668,
                        -0.059432253241539,
                        0.019984349608421326,
                        -0.21373212337493896,
                        0.1713300496339798,
                        0.09102468192577362,
                        -0.0271623432636261
                    ],
                    [
                        0.19781415164470673,
                        -0.09742975980043411,
                        -0.026216432452201843,
                        0.15534698963165283,
                        -0.04663800075650215,
                        -0.1536073088645935,
                        -0.31268900632858276,
                        0.08885467052459717,
                        0.04673205688595772,
                        0.4542105197906494,
                        -0.12012612819671631,
                        0.6272578835487366,
                        0.025155290961265564,
                        -0.07905783504247665,
                        -0.25900256633758545,
                        -0.09869000315666199,
                        0.14246468245983124,
                        0.41889363527297974,
                        -0.05041682720184326,
                        0.08781532943248749,
                        0.0459899865090847,
                        -0.09920201450586319,
                        -0.3989425003528595,
                        -0.20136314630508423,
                        0.016424328088760376,
                        0.006506880279630423,
                        -0.45843833684921265,
                        0.18190835416316986,
                        -0.19032151997089386,
                        -0.017338119447231293,
                        -0.023073285818099976,
                        0.10658547282218933,
                        0.05181894823908806,
                        0.15019264817237854,
                        0.07196454703807831,
                        -0.08013968169689178,
                        0.1969321221113205,
                        -0.2838291525840759,
                        0.1881593018770218,
                        -0.11962217092514038,
                        0.15069729089736938,
                        0.14512740075588226,
                        -0.1426684856414795,
                        -0.4118175208568573,
                        -0.14618833363056183,
                        0.43860116600990295,
                        0.02360907755792141,
                        -0.20009192824363708,
                        -0.47041016817092896,
                        -0.08061045408248901,
                        -0.12693089246749878,
                        0.0691797062754631,
                        0.07251018285751343,
                        0.10162104666233063,
                        -0.6270295977592468,
                        0.32440418004989624,
                        0.033594924956560135,
                        -0.19642409682273865,
                        0.09272497892379761,
                        0.19554591178894043,
                        0.05210296809673309,
                        0.19134439527988434,
                        -0.16617237031459808,
                        -0.17745667695999146
                    ],
                    [
                        0.1185155138373375,
                        -0.06288688629865646,
                        -0.022917762398719788,
                        -0.03159734606742859,
                        0.09814487397670746,
                        -0.039987713098526,
                        -0.111168771982193,
                        -0.038844577968120575,
                        0.036404088139534,
                        0.019662028178572655,
                        -0.07698800414800644,
                        0.13277138769626617,
                        -0.009085282683372498,
                        0.004132211674004793,
                        -0.10032898932695389,
                        -0.16677352786064148,
                        -0.1714949756860733,
                        -0.07359739392995834,
                        0.007345767691731453,
                        0.051958438009023666,
                        0.11066630482673645,
                        0.07154689729213715,
                        0.09510119259357452,
                        -0.15033960342407227,
                        -0.10250476002693176,
                        0.21534577012062073,
                        -0.007812726311385632,
                        -0.0354236364364624,
                        -0.21323785185813904,
                        -0.10437498241662979,
                        -0.2006194293498993,
                        0.1755450963973999,
                        0.1041889414191246,
                        -0.05666149780154228,
                        0.17448286712169647,
                        0.18720373511314392,
                        -0.09068439900875092,
                        -0.0662418082356453,
                        -6.15007447777316e-05,
                        0.1312721073627472,
                        0.18644864857196808,
                        -0.14908114075660706,
                        -0.05808034539222717,
                        -0.15416719019412994,
                        0.13880838453769684,
                        0.00880478136241436,
                        0.237521693110466,
                        -0.2019445300102234,
                        0.17219580709934235,
                        -0.049275726079940796,
                        0.014504035003483295,
                        -0.2307952642440796,
                        -0.04006008431315422,
                        0.13508765399456024,
                        0.298429012298584,
                        -0.04255092889070511,
                        0.04554254934191704,
                        0.01844702661037445,
                        -0.22711963951587677,
                        -0.06302185356616974,
                        -0.18822701275348663,
                        0.06398199498653412,
                        -0.20568795502185822,
                        0.08718140423297882
                    ],
                    [
                        -0.18167297542095184,
                        0.18629015982151031,
                        -0.039980724453926086,
                        -0.1401771903038025,
                        -0.0623500794172287,
                        0.08614195883274078,
                        -0.027465611696243286,
                        -0.15505045652389526,
                        -0.10983607172966003,
                        -0.04099735617637634,
                        0.17856602370738983,
                        0.14397816359996796,
                        -0.002610117197036743,
                        -0.15802547335624695,
                        0.06835456192493439,
                        0.172793909907341,
                        -0.0693519115447998,
                        0.18746285140514374,
                        -0.14592652022838593,
                        -0.05618882179260254,
                        0.19803409278392792,
                        0.052503690123558044,
                        -0.14113512635231018,
                        -0.11166653782129288,
                        0.12631739675998688,
                        -0.17349201440811157,
                        0.21599845588207245,
                        0.2150479406118393,
                        -0.13630026578903198,
                        0.1971154659986496,
                        -0.20716901123523712,
                        0.13600893318653107,
                        0.14303971827030182,
                        -0.047140300273895264,
                        -0.13928371667861938,
                        -0.04178398847579956,
                        -0.05250532925128937,
                        -0.1572079360485077,
                        -0.17514172196388245,
                        -0.05333036184310913,
                        -0.1067952960729599,
                        -0.2015252411365509,
                        0.15641559660434723,
                        -0.20905931293964386,
                        -0.09253757447004318,
                        -0.018384262919425964,
                        -0.18514132499694824,
                        -0.07579842209815979,
                        0.12082083523273468,
                        -0.13706351816654205,
                        -0.04513046145439148,
                        -0.11584144085645676,
                        0.17463703453540802,
                        -0.004690840840339661,
                        -0.03010396659374237,
                        0.1646696776151657,
                        -0.07913972437381744,
                        -0.00795002281665802,
                        -0.0034082531929016113,
                        0.05882801115512848,
                        -0.1722908914089203,
                        0.1658359318971634,
                        0.15019099414348602,
                        -0.020094141364097595
                    ],
                    [
                        0.12300892174243927,
                        -0.2315327674150467,
                        -0.07617606222629547,
                        0.01795247383415699,
                        0.040385764092206955,
                        0.40188753604888916,
                        -0.029359903186559677,
                        0.10638251155614853,
                        0.2428520917892456,
                        0.26106101274490356,
                        0.2062048763036728,
                        -0.37844619154930115,
                        -0.04000416398048401,
                        -0.011636825278401375,
                        0.30127033591270447,
                        0.18649950623512268,
                        -0.014520687982439995,
                        0.06556544452905655,
                        0.1736876666545868,
                        0.10214323550462723,
                        -0.18074436485767365,
                        0.0020742565393447876,
                        0.16318441927433014,
                        0.07730545103549957,
                        0.09790731966495514,
                        -0.18648740649223328,
                        -0.07036846876144409,
                        -0.026664167642593384,
                        0.12560366094112396,
                        0.1052846610546112,
                        -0.10466817021369934,
                        0.062330737709999084,
                        -0.054567497223615646,
                        -0.11024501919746399,
                        -0.2296445071697235,
                        -0.04783322289586067,
                        0.1656786948442459,
                        0.19042380154132843,
                        -0.49137192964553833,
                        -0.041292838752269745,
                        0.152173712849617,
                        0.21024537086486816,
                        0.14769761264324188,
                        0.11512646079063416,
                        0.10708318650722504,
                        0.33610448241233826,
                        0.24567735195159912,
                        -0.03912818431854248,
                        -0.21880142390727997,
                        0.03510497510433197,
                        0.24132601916790009,
                        -0.03290209919214249,
                        -0.08901757746934891,
                        -0.06213885545730591,
                        -0.1106194406747818,
                        0.12719494104385376,
                        -0.40823349356651306,
                        0.012612561695277691,
                        -0.046396397054195404,
                        0.14586612582206726,
                        -0.0737488716840744,
                        -0.6034670472145081,
                        0.08801854401826859,
                        0.07863740622997284
                    ],
                    [
                        0.04945407807826996,
                        -0.08357571065425873,
                        -0.01802659034729004,
                        -0.11929987370967865,
                        -0.1850634217262268,
                        0.09944282472133636,
                        0.11883886158466339,
                        0.1154705137014389,
                        0.1068502813577652,
                        0.07378794252872467,
                        -0.055567383766174316,
                        0.10592453181743622,
                        -0.08744890987873077,
                        -0.19715216755867004,
                        -0.18016596138477325,
                        0.0582091361284256,
                        -0.04114215075969696,
                        0.06307397782802582,
                        0.17422734200954437,
                        0.0961073487997055,
                        0.10328246653079987,
                        0.028001055121421814,
                        0.10458274185657501,
                        -0.022301122546195984,
                        0.1263541430234909,
                        0.1855023056268692,
                        0.1328577846288681,
                        0.08284230530261993,
                        -0.03618320822715759,
                        0.1679966300725937,
                        0.11649303138256073,
                        -0.09372001141309738,
                        -0.14949238300323486,
                        0.043759241700172424,
                        0.003623664379119873,
                        -0.03961743414402008,
                        -0.06940187513828278,
                        -0.12791170179843903,
                        -0.1962805688381195,
                        0.02700790762901306,
                        0.20588834583759308,
                        -0.15750758349895477,
                        0.09492181241512299,
                        0.1341702789068222,
                        -0.10962799936532974,
                        -0.16842952370643616,
                        -0.07115863263607025,
                        -0.1147824227809906,
                        0.08184228837490082,
                        -0.2087821662425995,
                        0.07650674879550934,
                        0.08915539085865021,
                        -0.15360522270202637,
                        0.037552401423454285,
                        -0.07786530256271362,
                        0.009134933352470398,
                        0.006645083427429199,
                        0.08858601748943329,
                        0.17029209434986115,
                        -0.19145238399505615,
                        -0.1985335499048233,
                        0.10141633450984955,
                        -0.0199262797832489,
                        -0.09027649462223053
                    ],
                    [
                        -0.21487177908420563,
                        -0.16371706128120422,
                        0.12506239116191864,
                        -0.1934964507818222,
                        0.16940517723560333,
                        -0.02994513511657715,
                        -0.18607015907764435,
                        -0.06594257056713104,
                        -0.006193369626998901,
                        0.1832035332918167,
                        -0.03044728934764862,
                        -0.20287704467773438,
                        -0.06008395552635193,
                        -0.005903676152229309,
                        0.1846722513437271,
                        0.01112954318523407,
                        0.15612642467021942,
                        -0.14614775776863098,
                        -0.18490613996982574,
                        -0.013321354985237122,
                        0.1219296008348465,
                        0.16472141444683075,
                        0.07648392021656036,
                        0.1517113298177719,
                        0.04087553918361664,
                        -0.034221529960632324,
                        0.04350702464580536,
                        0.18329094350337982,
                        -0.18744932115077972,
                        0.037349388003349304,
                        -0.002116844058036804,
                        0.18308962881565094,
                        0.016329094767570496,
                        0.1690349131822586,
                        0.028629735112190247,
                        0.15921159088611603,
                        0.02883113920688629,
                        -0.1855999082326889,
                        -0.16050149500370026,
                        0.19759397208690643,
                        0.17916806042194366,
                        -0.02106820046901703,
                        0.11565335094928741,
                        -0.10831093788146973,
                        0.2061641365289688,
                        0.14027433097362518,
                        -0.1679542064666748,
                        -0.0909297913312912,
                        -0.08787301182746887,
                        -0.05067259073257446,
                        -0.04360562562942505,
                        -0.013806357979774475,
                        -0.1901622712612152,
                        -0.19452443718910217,
                        0.029690399765968323,
                        0.16663937270641327,
                        -0.15571969747543335,
                        0.15500782430171967,
                        -0.12809103727340698,
                        -0.2042326033115387,
                        -0.14906206727027893,
                        0.07551170885562897,
                        0.041592493653297424,
                        0.04369698464870453
                    ],
                    [
                        0.08873053640127182,
                        -0.12198593467473984,
                        -0.04337871074676514,
                        0.0008318587206304073,
                        0.05615320801734924,
                        0.2066657543182373,
                        -0.10290145128965378,
                        -0.18524645268917084,
                        0.03355211019515991,
                        -0.10905598849058151,
                        0.08324949443340302,
                        0.0481436625123024,
                        -0.1613268256187439,
                        0.11589871346950531,
                        0.04226524010300636,
                        0.0412677638232708,
                        -0.07095309346914291,
                        0.12439969182014465,
                        -0.06740931421518326,
                        -0.21586835384368896,
                        0.1685977578163147,
                        0.13814778625965118,
                        -0.135410338640213,
                        -0.2153274118900299,
                        -0.1113523319363594,
                        0.16200892627239227,
                        -0.198016956448555,
                        -0.006686791777610779,
                        0.1844661682844162,
                        -0.10038324445486069,
                        -0.19382387399673462,
                        -0.0406540222465992,
                        -0.006514467298984528,
                        -0.21798479557037354,
                        0.16111624240875244,
                        -0.22052280604839325,
                        0.0786096602678299,
                        0.011881137266755104,
                        -0.028466910123825073,
                        -0.14705152809619904,
                        0.07578109204769135,
                        0.18616662919521332,
                        0.036139968782663345,
                        -0.13479667901992798,
                        -0.06444209814071655,
                        0.06768343597650528,
                        -0.0459708534181118,
                        0.15409304201602936,
                        -0.03436654806137085,
                        0.1814085990190506,
                        -0.1590036302804947,
                        0.16081281006336212,
                        0.20630478858947754,
                        -0.08735872805118561,
                        -0.14547580480575562,
                        0.22355690598487854,
                        -0.04444315657019615,
                        0.11760144680738449,
                        0.09994558990001678,
                        -0.12776367366313934,
                        -0.05943742394447327,
                        0.1085992157459259,
                        0.10433544218540192,
                        -0.12814269959926605
                    ],
                    [
                        -0.138053759932518,
                        -0.07711116969585419,
                        -0.04420280456542969,
                        0.1287737935781479,
                        0.25464531779289246,
                        -0.029201848432421684,
                        -0.26596832275390625,
                        -0.1889083832502365,
                        0.024973642081022263,
                        -0.06336519122123718,
                        -0.0018650341080501676,
                        0.05387214198708534,
                        0.14913691580295563,
                        -0.09129573404788971,
                        0.1328069418668747,
                        0.08667919039726257,
                        0.04395649582147598,
                        0.1343710869550705,
                        -0.07040204852819443,
                        0.0024519814178347588,
                        -0.2007189244031906,
                        0.15114934742450714,
                        -0.027957294136285782,
                        -0.08846358954906464,
                        0.08938215672969818,
                        -0.19926808774471283,
                        0.0997035950422287,
                        0.18357498943805695,
                        0.20650531351566315,
                        -0.02540590800344944,
                        -0.044694989919662476,
                        0.06985602527856827,
                        0.16057947278022766,
                        -0.09572697430849075,
                        0.018717339262366295,
                        0.12982390820980072,
                        0.06481857597827911,
                        0.16255898773670197,
                        0.19363917410373688,
                        0.11156799644231796,
                        -0.013810176402330399,
                        0.1433604210615158,
                        0.030814997851848602,
                        -0.03759434074163437,
                        0.12696067988872528,
                        0.06598981469869614,
                        0.011886650696396828,
                        -0.1675678938627243,
                        -0.16465400159358978,
                        0.14592523872852325,
                        0.14994530379772186,
                        -0.035908088088035583,
                        0.2270979881286621,
                        0.04529373347759247,
                        0.143807515501976,
                        0.24274393916130066,
                        0.05803973227739334,
                        -0.07341334968805313,
                        0.07742822915315628,
                        0.04183550551533699,
                        -0.17339982092380524,
                        -0.08773684501647949,
                        -0.2327675074338913,
                        -0.09704159945249557
                    ],
                    [
                        0.004382418002933264,
                        -0.10018289089202881,
                        -0.11562670767307281,
                        0.13092269003391266,
                        0.23829877376556396,
                        0.3277900815010071,
                        -0.1454249769449234,
                        0.19907750189304352,
                        0.2131049782037735,
                        0.10460472106933594,
                        0.030184676870703697,
                        -0.01822800375521183,
                        -0.14096416532993317,
                        0.06170831248164177,
                        -0.23113547265529633,
                        -0.10905492305755615,
                        -0.30872294306755066,
                        0.10586197674274445,
                        -0.014974183402955532,
                        -0.23565253615379333,
                        0.02082444541156292,
                        -0.16180400550365448,
                        0.1525648981332779,
                        -0.18569369614124298,
                        -0.15083803236484528,
                        0.18063269555568695,
                        -0.2713626027107239,
                        0.15241526067256927,
                        -0.0626351609826088,
                        -0.05888321250677109,
                        -0.06221328675746918,
                        0.04585837200284004,
                        0.07329005002975464,
                        0.016153356060385704,
                        0.22845229506492615,
                        -0.16571135818958282,
                        0.19508545100688934,
                        -0.09107723832130432,
                        0.1923886239528656,
                        0.15984994173049927,
                        0.22325602173805237,
                        0.026461444795131683,
                        0.20289617776870728,
                        -0.00927786622196436,
                        -0.10095107555389404,
                        0.05798247829079628,
                        -0.12469375878572464,
                        0.032578080892562866,
                        -0.27945035696029663,
                        -0.028133973479270935,
                        -0.0753515437245369,
                        0.13533256947994232,
                        0.043376367539167404,
                        0.012533843517303467,
                        -0.06623516231775284,
                        0.018873823806643486,
                        -0.17449890077114105,
                        -0.023244164884090424,
                        -0.120997853577137,
                        0.04852629825472832,
                        0.1534683257341385,
                        0.04615292325615883,
                        -0.11842579394578934,
                        -0.00699944794178009
                    ],
                    [
                        0.06998191773891449,
                        0.062011197209358215,
                        -0.11132373660802841,
                        0.20518483221530914,
                        0.14511646330356598,
                        0.1479572206735611,
                        0.02211032807826996,
                        0.13218994438648224,
                        -0.05521151423454285,
                        -0.12672457098960876,
                        0.18694938719272614,
                        0.0742880254983902,
                        0.04225189983844757,
                        -0.09886205196380615,
                        -0.21159814298152924,
